{"type":"RNN","options":{"inputSize":5,"inputRange":5,"hiddenLayers":[20,20],"outputSize":5,"decayRate":0.999,"smoothEps":1e-8,"regc":0.000001,"clipval":5,"maxPredictionLength":100,"dataFormatter":{"values":[[0],[0],[0,0],[0,1],[1],[1],[1,0],[1,1]],"indexTable":{"0":0,"1":1,"stop-input":2,"start-output":3,"unrecognized":4},"characterTable":{"0":0,"1":1,"2":null,"3":null,"4":null},"characters":[0,1,"stop-input","start-output","unrecognized"],"specialIndexes":[2,3,4]}},"input":{"rows":6,"columns":5,"weights":{"0":0.3884780704975128,"1":0.06832236051559448,"2":-0.13146355748176575,"3":0.01450085174292326,"4":0.13812054693698883,"5":-0.15017184615135193,"6":-0.3245408833026886,"7":0.18258459866046906,"8":-0.02337980642914772,"9":-0.8894282579421997,"10":-0.6936571002006531,"11":0.37367892265319824,"12":0.02910573221743107,"13":-0.6632212400436401,"14":-0.33598998188972473,"15":0.4162534475326538,"16":0.5426639914512634,"17":0.41947993636131287,"18":-0.03338950127363205,"19":0.540560781955719,"20":-0.07674619555473328,"21":1.772910714149475,"22":1.702567219734192,"23":-0.23907572031021118,"24":-0.04534541815519333,"25":-0.028067361563444138,"26":-0.019322093576192856,"27":0.004518543370068073,"28":0.038677286356687546,"29":-0.00002316598329343833}},"hiddenLayers":[{"weight":{"rows":20,"columns":5,"weights":{"0":-0.48756280541419983,"1":-0.15503515303134918,"2":-0.12314915657043457,"3":0.3226780295372009,"4":-0.4401111602783203,"5":-0.4191281795501709,"6":-0.7677467465400696,"7":-0.5741643309593201,"8":0.43336573243141174,"9":-0.7067596912384033,"10":-0.09925679117441177,"11":0.1320912390947342,"12":0.2194763422012329,"13":-0.18762145936489105,"14":0.057297319173812866,"15":0.10718245059251785,"16":-0.1637629121541977,"17":0.13624362647533417,"18":0.05091998726129532,"19":0.2737681567668915,"20":0.1534348428249359,"21":-0.31954920291900635,"22":0.44989368319511414,"23":0.40178659558296204,"24":0.2804482579231262,"25":-0.2654629051685333,"26":-0.6408818960189819,"27":0.053394217044115067,"28":0.1756153404712677,"29":0.0691993236541748,"30":0.31116119027137756,"31":-0.2093030959367752,"32":0.2045055776834488,"33":0.5643286108970642,"34":0.2927228510379791,"35":0.1654759645462036,"36":-0.6575176119804382,"37":0.39920341968536377,"38":1.1239184141159058,"39":0.18103590607643127,"40":-0.32315415143966675,"41":0.0975198745727539,"42":-0.14232075214385986,"43":-0.4633156955242157,"44":-0.3236260712146759,"45":-0.1528097242116928,"46":0.007199951913207769,"47":0.39008837938308716,"48":-0.29155540466308594,"49":-0.10976024717092514,"50":-0.1384936422109604,"51":-0.7856667041778564,"52":-0.9093168377876282,"53":-0.7606015205383301,"54":-0.13427291810512543,"55":0.04593110829591751,"56":0.25524598360061646,"57":-0.16371066868305206,"58":-0.09758700430393219,"59":0.22175970673561096,"60":-1.1682119369506836,"61":0.7149215936660767,"62":-0.11802367866039276,"63":0.7291304469108582,"64":-0.8447139263153076,"65":-0.559382438659668,"66":-0.5090351104736328,"67":0.32195165753364563,"68":0.008490290492773056,"69":-0.4660439193248749,"70":0.14671817421913147,"71":-0.34021326899528503,"72":0.39542922377586365,"73":-0.08754846453666687,"74":0.3583003580570221,"75":-1.0552568435668945,"76":0.43464890122413635,"77":0.7627530097961426,"78":-0.19493526220321655,"79":-1.050842046737671,"80":0.48523467779159546,"81":0.7056775093078613,"82":-0.42944905161857605,"83":1.0153887271881104,"84":0.6924155354499817,"85":-0.000007921483302197885,"86":1.0689053535461426,"87":1.1179783344268799,"88":-0.3690556585788727,"89":0.3072197735309601,"90":0.025655655190348625,"91":0.020149365067481995,"92":-0.061341799795627594,"93":0.03768432140350342,"94":-0.04229537397623062,"95":-0.03367321938276291,"96":1.319204568862915,"97":1.9468735456466675,"98":-0.68705153465271,"99":0.3679860532283783}},"transition":{"rows":20,"columns":20,"weights":{"0":-0.9170032143592834,"1":0.1380404531955719,"2":-0.4161432981491089,"3":0.038064904510974884,"4":-0.1961703896522522,"5":-0.15046535432338715,"6":-0.264556348323822,"7":0.06863267719745636,"8":-0.8482794165611267,"9":0.003243260318413377,"10":0.11960561573505402,"11":0.12353941798210144,"12":0.7197311520576477,"13":0.7457926273345947,"14":-0.1888686865568161,"15":0.5969563722610474,"16":-0.8099958896636963,"17":-0.3831428587436676,"18":-0.026827054098248482,"19":-0.532188892364502,"20":-0.3131374418735504,"21":0.4252958595752716,"22":-1.0404456853866577,"23":0.03304063901305199,"24":-0.12379438430070877,"25":-0.016094980761408806,"26":-0.2692042589187622,"27":-0.1544272005558014,"28":-1.0025851726531982,"29":0.08792833983898163,"30":0.015317406505346298,"31":0.06901922821998596,"32":0.7378117442131042,"33":0.30959486961364746,"34":-0.1130044236779213,"35":0.01898244209587574,"36":-0.71531081199646,"37":-0.10979701578617096,"38":0.037693943828344345,"39":-0.44672152400016785,"40":-1.1081551313400269,"41":-0.5498546957969666,"42":-1.0602171421051025,"43":0.06088337302207947,"44":-0.10930953174829483,"45":-0.07199074327945709,"46":-0.13750165700912476,"47":-0.15532183647155762,"48":-0.9812332391738892,"49":-0.2305688112974167,"50":0.20742332935333252,"51":0.12361793220043182,"52":0.4785873591899872,"53":0.6526459455490112,"54":-0.09887881577014923,"55":0.7679349184036255,"56":-0.8626990914344788,"57":-0.28874555230140686,"58":0.056310445070266724,"59":-0.7327859997749329,"60":-0.18006107211112976,"61":-0.16390514373779297,"62":-0.26816603541374207,"63":0.03767997398972511,"64":-0.5350834131240845,"65":-0.01853591576218605,"66":-0.2729620337486267,"67":-0.15926247835159302,"68":-0.2634411156177521,"69":-0.5872986912727356,"70":-0.02853281795978546,"71":-0.3150946795940399,"72":-0.12596102058887482,"73":-0.4777417778968811,"74":-0.03230760991573334,"75":-0.7740980982780457,"76":-0.2583301365375519,"77":-0.29806268215179443,"78":0.0416266992688179,"79":0.022718295454978943,"80":-0.09256738424301147,"81":-0.246209979057312,"82":-0.10458026826381683,"83":-0.2525979280471802,"84":0.1299746185541153,"85":0.10519999265670776,"86":-0.10056700557470322,"87":-0.24504902958869934,"88":-0.21694284677505493,"89":-0.05970025062561035,"90":-0.034417521208524704,"91":0.11017308384180069,"92":-0.011784626170992851,"93":-0.2522655427455902,"94":0.09591058641672134,"95":-0.5361562371253967,"96":-0.026891309767961502,"97":-0.15054607391357422,"98":-0.04903242364525795,"99":0.13113464415073395,"100":-0.3386889100074768,"101":-0.2450207769870758,"102":-0.2600749433040619,"103":-0.08661092817783356,"104":-0.33315396308898926,"105":-0.07762455195188522,"106":-0.34526488184928894,"107":-0.24817140400409698,"108":-0.36924082040786743,"109":-0.21788887679576874,"110":0.013553464785218239,"111":-0.052743006497621536,"112":-0.20628893375396729,"113":-0.3709471821784973,"114":-0.07679483294487,"115":-0.319370836019516,"116":-0.39565619826316833,"117":-0.23642763495445251,"118":-0.014174500480294228,"119":0.03254285082221031,"120":-0.08812663704156876,"121":-0.05352896451950073,"122":-0.4580753743648529,"123":-0.0019602933898568153,"124":-0.5293717384338379,"125":0.02062102220952511,"126":-0.24956072866916656,"127":-0.1704506278038025,"128":-0.4679258465766907,"129":0.012491212226450443,"130":0.0380769781768322,"131":0.15600523352622986,"132":-0.8462299108505249,"133":-1.0018517971038818,"134":-0.07199469953775406,"135":-0.469856321811676,"136":-0.23014307022094727,"137":-0.08868815749883652,"138":0.007182106375694275,"139":-0.6663524508476257,"140":0.3734624981880188,"141":0.427336186170578,"142":0.1408984661102295,"143":-0.3580000698566437,"144":-0.03076854534447193,"145":-0.15619875490665436,"146":-0.25126078724861145,"147":-1.2336399555206299,"148":0.5384346842765808,"149":0.09325337409973145,"150":0.6033807992935181,"151":-0.182575523853302,"152":0.5069500803947449,"153":-0.5316514372825623,"154":-0.045181307941675186,"155":0.34900006651878357,"156":-1.357012152671814,"157":-0.18578077852725983,"158":0.0006870498764328659,"159":1.0581215620040894,"160":-1.0434130430221558,"161":-0.18202564120292664,"162":-1.1818791627883911,"163":-0.04767395928502083,"164":-0.11356376111507416,"165":-0.16389620304107666,"166":-0.13375964760780334,"167":-0.13820916414260864,"168":-1.0429013967514038,"169":-0.04970623552799225,"170":0.14309661090373993,"171":0.13899517059326172,"172":0.7985790967941284,"173":0.7871167063713074,"174":-0.18749620020389557,"175":0.7551969885826111,"176":-0.9665736556053162,"177":-0.3190142512321472,"178":-0.04688742756843567,"179":-0.5351448059082031,"180":-0.40450578927993774,"181":0.5631039142608643,"182":-0.7744268774986267,"183":0.003610322717577219,"184":-0.006596136372536421,"185":-0.060814760625362396,"186":-0.2459399402141571,"187":-1.9936950206756592,"188":-0.2819181978702545,"189":-0.4788316488265991,"190":0.3695071041584015,"191":-0.11092764139175415,"192":0.2195976972579956,"193":0.5118831396102905,"194":-0.018454553559422493,"195":0.5629648566246033,"196":-0.7900170087814331,"197":-0.276125431060791,"198":0.009027628228068352,"199":-0.6280069947242737,"200":-0.007983365096151829,"201":-0.0977378785610199,"202":-0.1550835818052292,"203":0.020343810319900513,"204":-0.06717253476381302,"205":0.01993134245276451,"206":0.04929135739803314,"207":-0.18244010210037231,"208":-0.11559101194143295,"209":-0.11302239447832108,"210":0.33569207787513733,"211":-0.05908006429672241,"212":-0.1021026223897934,"213":-0.23881584405899048,"214":0.043781016021966934,"215":-0.6847428679466248,"216":-0.03997422382235527,"217":0.35452210903167725,"218":0.0481896735727787,"219":0.08887453377246857,"220":-0.48266321420669556,"221":-0.5080363750457764,"222":-0.5229051113128662,"223":-0.08213893324136734,"224":-0.0010558393551036716,"225":-0.11729086935520172,"226":-0.3071022927761078,"227":-0.29931601881980896,"228":-0.4783576726913452,"229":-0.1980137974023819,"230":0.056779276579618454,"231":-0.10019352287054062,"232":-0.28059351444244385,"233":-0.054297205060720444,"234":-0.013287966139614582,"235":-0.3170716166496277,"236":-0.07536128908395767,"237":-0.07427278906106949,"238":0.06942511349916458,"239":-0.017899082973599434,"240":0.07674649357795715,"241":0.13811276853084564,"242":-0.15189921855926514,"243":0.06966505944728851,"244":0.014919545501470566,"245":-0.02210504375398159,"246":-0.8595852255821228,"247":-1.7081654071807861,"248":-0.03702542930841446,"249":-0.7003399133682251,"250":0.3960711658000946,"251":-0.23618930578231812,"252":0.2799496650695801,"253":0.48847678303718567,"254":-0.3187118172645569,"255":0.14720305800437927,"256":-0.033416274935007095,"257":-0.6517242193222046,"258":-0.0025824422482401133,"259":-0.46899229288101196,"260":0.24129992723464966,"261":0.343883752822876,"262":0.06498146057128906,"263":-0.20201298594474792,"264":-0.5222927331924438,"265":-0.33569973707199097,"266":-0.38396579027175903,"267":-0.35779356956481934,"268":0.08574303239583969,"269":-0.9121138453483582,"270":0.0603945329785347,"271":0.2865917384624481,"272":-0.7939816117286682,"273":-0.7140912413597107,"274":-0.014246240258216858,"275":-0.7888771891593933,"276":1.1891753673553467,"277":0.13272149860858917,"278":-0.06916248798370361,"279":3.297734022140503,"280":-0.22515003383159637,"281":-0.25274404883384705,"282":-0.23182523250579834,"283":-0.01045992597937584,"284":-0.4232593774795532,"285":0.016355294734239578,"286":-0.2600648105144501,"287":-0.25788718461990356,"288":-0.3004458546638489,"289":-0.20200546085834503,"290":-0.004345126915723085,"291":-0.13346238434314728,"292":-0.14242875576019287,"293":-0.28860849142074585,"294":-0.019079605117440224,"295":-0.3633107542991638,"296":-0.31113526225090027,"297":-0.2677151560783386,"298":-0.027912430465221405,"299":-0.07037565857172012,"300":0.6330632567405701,"301":0.6444469094276428,"302":0.6311957836151123,"303":0.31633642315864563,"304":-0.40271905064582825,"305":0.05562455579638481,"306":-0.08347009122371674,"307":0.39091235399246216,"308":0.7518925666809082,"309":0.1128532737493515,"310":0.14274188876152039,"311":-0.1516079604625702,"312":-0.21728309988975525,"313":1.038388967514038,"314":-0.22277919948101044,"315":0.6941715478897095,"316":-0.0007745435577817261,"317":-0.20378059148788452,"318":0.009663639590144157,"319":-0.2592715620994568,"320":-0.5625578761100769,"321":-0.720729649066925,"322":-0.8459457159042358,"323":-0.27980220317840576,"324":-0.047623299062252045,"325":0.057157669216394424,"326":-0.23646536469459534,"327":-0.3778344988822937,"328":-0.7622929811477661,"329":-0.21387776732444763,"330":0.010824518278241158,"331":-0.38969624042510986,"332":-0.17120523750782013,"333":0.35709595680236816,"334":-0.09743165224790573,"335":-1.0133521556854248,"336":-0.39628496766090393,"337":-0.8456112146377563,"338":0.05641709640622139,"339":-0.1640627384185791,"340":-0.7046253681182861,"341":-0.919860303401947,"342":-0.9558906555175781,"343":0.010032656602561474,"344":-0.21539798378944397,"345":0.29442694783210754,"346":-0.5392494201660156,"347":-0.47316431999206543,"348":-0.9560582637786865,"349":-0.023722093552350998,"350":-0.0034436238929629326,"351":-0.34102365374565125,"352":-0.48025214672088623,"353":0.020304933190345764,"354":0.28331005573272705,"355":-0.9351621866226196,"356":-0.28130510449409485,"357":0.044705674052238464,"358":0.02825259417295456,"359":0.17265599966049194,"360":-0.14556537568569183,"361":-0.10700809955596924,"362":-0.08590143918991089,"363":0.0030124527402222157,"364":0.0610499233007431,"365":-0.004674448631703854,"366":-0.042641427367925644,"367":-0.0520714670419693,"368":-0.12014994025230408,"369":-0.08708497881889343,"370":0.04225952550768852,"371":0.03402512148022652,"372":-0.055663589388132095,"373":0.013848008587956429,"374":0.002501671202480793,"375":-0.04111684486269951,"376":0.008679615333676338,"377":0.04849798232316971,"378":0.05539054051041603,"379":-0.039499927312135696,"380":-0.629690408706665,"381":-0.9440605640411377,"382":-1.3564269542694092,"383":0.2886244058609009,"384":-0.017029745504260063,"385":0.0566210076212883,"386":-0.3507574200630188,"387":-0.0659874975681305,"388":-1.1451377868652344,"389":0.2606325149536133,"390":0.4075644612312317,"391":-0.2826354503631592,"392":-0.03564020246267319,"393":0.10028671473264694,"394":-0.010165330022573471,"395":0.48348936438560486,"396":-0.9077133536338806,"397":-0.29740849137306213,"398":0.03673739358782768,"399":-0.1935618668794632}},"bias":{"rows":20,"columns":1,"weights":{"0":0.05545828863978386,"1":0.14993441104888916,"2":0.24741429090499878,"3":-0.15715330839157104,"4":-0.3453159034252167,"5":-0.29549407958984375,"6":-0.28512299060821533,"7":-0.201880544424057,"8":0.24659176170825958,"9":-0.46290117502212524,"10":-0.2601960599422455,"11":-0.21455253660678864,"12":0.2642006576061249,"13":-0.26190733909606934,"14":-0.2914472222328186,"15":0.40663033723831177,"16":0.3759611248970032,"17":-0.39561742544174194,"18":-0.24350379407405853,"19":-0.13789041340351105}}},{"weight":{"rows":20,"columns":20,"weights":{"0":-0.45572659373283386,"1":-0.5137219429016113,"2":-0.45092126727104187,"3":-0.185846745967865,"4":-0.578433096408844,"5":-0.2956208288669586,"6":-0.3052332401275635,"7":-0.5256262421607971,"8":-0.48735320568084717,"9":-0.37045273184776306,"10":-0.025157980620861053,"11":-0.25878632068634033,"12":-0.053377337753772736,"13":-0.39754000306129456,"14":-0.21247844398021698,"15":-0.5076831579208374,"16":-0.5291049480438232,"17":-0.2995801270008087,"18":-0.009116155095398426,"19":-0.08668671548366547,"20":-0.3315163850784302,"21":-0.10931136459112167,"22":-1.1241488456726074,"23":0.13386094570159912,"24":-0.540983259677887,"25":-0.182122603058815,"26":-0.3093360364437103,"27":-0.30217617750167847,"28":-0.4181143343448639,"29":-0.3859686851501465,"30":0.5402501225471497,"31":-0.04959415644407272,"32":-1.5712833404541016,"33":-0.3547494411468506,"34":-0.2372777760028839,"35":-0.3557991087436676,"36":-0.6133226752281189,"37":-0.39805760979652405,"38":-0.0414922833442688,"39":-0.7044075131416321,"40":-0.05520796403288841,"41":-0.07149281352758408,"42":-0.05008767917752266,"43":-0.009911001659929752,"44":-0.3345015347003937,"45":-0.01842176914215088,"46":-0.02741587907075882,"47":0.011768709868192673,"48":0.010606789961457253,"49":0.045632440596818924,"50":-0.06461690366268158,"51":-0.04947591572999954,"52":-0.014376185834407806,"53":-0.3120742738246918,"54":0.0027546235360205173,"55":-0.24178043007850647,"56":-0.043768223375082016,"57":0.014553289860486984,"58":0.0012504535261541605,"59":-0.0657123550772667,"60":-0.3980560302734375,"61":-0.5248980522155762,"62":-0.4841644763946533,"63":-0.23390907049179077,"64":0.015346377156674862,"65":-0.02308855764567852,"66":0.8055245280265808,"67":0.3723582625389099,"68":-0.4043066203594208,"69":0.8721248507499695,"70":-0.09128449857234955,"71":-0.30829089879989624,"72":0.6638624668121338,"73":0.08722559362649918,"74":-0.01225343532860279,"75":-0.3587424159049988,"76":-0.6850435733795166,"77":-0.830489993095398,"78":0.016365891322493553,"79":-0.5144392251968384,"80":-0.4612354636192322,"81":-0.558460533618927,"82":-1.086411476135254,"83":0.03877769783139229,"84":-0.6341373324394226,"85":-0.19533130526542664,"86":-0.2743334174156189,"87":0.34165287017822266,"88":-0.9427222609519958,"89":-0.2744886875152588,"90":0.532688319683075,"91":0.06262201070785522,"92":-1.412759780883789,"93":-0.3124024271965027,"94":-0.25185054540634155,"95":-0.2967056632041931,"96":-0.8433802127838135,"97":-0.9843259453773499,"98":0.018004534766077995,"99":-1.0487502813339233,"100":-0.731350839138031,"101":-0.7853708863258362,"102":-0.9226112961769104,"103":0.0496397390961647,"104":-0.11340633034706116,"105":-0.11797566711902618,"106":0.34130510687828064,"107":-0.21917757391929626,"108":-0.9382377862930298,"109":-0.3807285726070404,"110":-0.1101505234837532,"111":-0.2890406548976898,"112":-1.6212645769119263,"113":1.0724987983703613,"114":-0.2336159646511078,"115":-0.8498544692993164,"116":-1.1084083318710327,"117":-1.0758241415023804,"118":-0.0478358194231987,"119":-1.0117918252944946,"120":-0.016618123278021812,"121":-0.07534004747867584,"122":-0.028548946604132652,"123":-0.003433984238654375,"124":0.020499978214502335,"125":0.018767133355140686,"126":-0.03381907939910889,"127":0.03643934056162834,"128":-0.04379073530435562,"129":-0.07516974210739136,"130":0.052622128278017044,"131":-0.033942244946956635,"132":0.015448997728526592,"133":-0.002524317242205143,"134":0.07236149162054062,"135":-0.044382013380527496,"136":0.10920760780572891,"137":-0.058835454285144806,"138":-0.0017825971590355039,"139":-0.0093734385445714,"140":0.05421257019042969,"141":-0.03397895768284798,"142":-0.06562490016222,"143":0.007223174907267094,"144":-0.036061447113752365,"145":-0.045307308435440063,"146":-0.00904590729624033,"147":-0.07233159244060516,"148":0.0015198492910712957,"149":-0.04767981916666031,"150":0.02796151116490364,"151":0.019492024555802345,"152":-0.3238737881183624,"153":-0.0025929745752364397,"154":0.051778607070446014,"155":-0.3072817921638489,"156":0.006867260672152042,"157":-0.0446489043533802,"158":-0.017072977498173714,"159":-0.05247960612177849,"160":0.6532865762710571,"161":0.4860602915287018,"162":0.6633923649787903,"163":-0.29949578642845154,"164":0.4766691327095032,"165":-0.04691483825445175,"166":0.7100110054016113,"167":0.4470190703868866,"168":0.611097514629364,"169":0.23569108545780182,"170":0.3757999539375305,"171":-0.07878883183002472,"172":0.30571672320365906,"173":-0.9627382755279541,"174":0.015324503183364868,"175":0.0036292001605033875,"176":-0.5847535133361816,"177":-0.5086193680763245,"178":0.019009146839380264,"179":-0.3268493413925171,"180":-0.3446616232395172,"181":-0.26034119725227356,"182":-0.2791191637516022,"183":-0.04321182519197464,"184":-0.24615763127803802,"185":-0.031639084219932556,"186":-0.3605458736419678,"187":-0.2847188413143158,"188":-0.3489680290222168,"189":-0.2254558950662613,"190":0.03503228351473808,"191":-0.19352242350578308,"192":0.08108287304639816,"193":-0.27058538794517517,"194":-0.13936631381511688,"195":-0.2861267626285553,"196":-0.12750458717346191,"197":-0.23973959684371948,"198":-0.03609424829483032,"199":-0.04619932919740677,"200":-0.028080057352781296,"201":-0.023129664361476898,"202":-0.0350785069167614,"203":0.03743049129843712,"204":-0.3333529531955719,"205":-0.025835759937763214,"206":-0.012446907348930836,"207":-0.0009026852785609663,"208":0.044676102697849274,"209":-0.013556013815104961,"210":-0.07212647795677185,"211":0.06120076775550842,"212":-0.03657348453998566,"213":-0.3024439215660095,"214":-0.05574548989534378,"215":-0.22808733582496643,"216":-0.028309691697359085,"217":-0.03977629914879799,"218":-0.04932457208633423,"219":-0.03891796991229057,"220":0.9362329840660095,"221":0.7684140205383301,"222":0.915851891040802,"223":-0.15646511316299438,"224":0.10686872154474258,"225":0.10653320699930191,"226":-0.040942899882793427,"227":0.4777883291244507,"228":0.9175823926925659,"229":0.204451322555542,"230":-0.235088050365448,"231":0.0577973797917366,"232":0.43618425726890564,"233":-0.6604169607162476,"234":-0.003772038733586669,"235":-0.47922539710998535,"236":-0.1046547219157219,"237":-0.2518375515937805,"238":0.016599033027887344,"239":0.07299580425024033,"240":0.1804029792547226,"241":-0.2064625471830368,"242":0.15219427645206451,"243":-0.24847544729709625,"244":-0.6110643148422241,"245":-0.37862756848335266,"246":-0.11781157553195953,"247":0.18003033101558685,"248":0.17878897488117218,"249":-0.47908926010131836,"250":0.4676312208175659,"251":-0.29452502727508545,"252":-1.1532764434814453,"253":0.7421994209289551,"254":-0.26519888639450073,"255":0.07911952584981918,"256":-0.3886781930923462,"257":-0.1911744922399521,"258":-0.04665558412671089,"259":-0.4841967821121216,"260":-0.25185292959213257,"261":-0.2722172439098358,"262":-0.2835608720779419,"263":0.042166415601968765,"264":-0.2570092976093292,"265":-0.09398572891950607,"266":-0.25567489862442017,"267":-0.2914286255836487,"268":-0.29385456442832947,"269":-0.29048576951026917,"270":-0.06382302939891815,"271":-0.16301782429218292,"272":0.059386253356933594,"273":-0.2601287066936493,"274":-0.16857583820819855,"275":-0.21996957063674927,"276":-0.15492475032806396,"277":-0.31693485379219055,"278":0.08405932039022446,"279":-0.024654600769281387,"280":-0.2599160671234131,"281":-0.3869420289993286,"282":-0.2493283748626709,"283":0.23690396547317505,"284":0.3466258645057678,"285":0.0398666113615036,"286":-0.32318106293678284,"287":0.39721888303756714,"288":-0.27122560143470764,"289":-0.1743728071451187,"290":0.32461637258529663,"291":-0.02926962822675705,"292":-0.7054380774497986,"293":0.8395497798919678,"294":0.042238347232341766,"295":-0.4183313548564911,"296":-0.29562583565711975,"297":-0.08707434684038162,"298":0.005314418114721775,"299":-0.2949177622795105,"300":-0.4305497705936432,"301":-0.4263656437397003,"302":-0.06407667696475983,"303":0.09941037744283676,"304":0.08344042301177979,"305":0.2553237974643707,"306":-0.05800563842058182,"307":0.1110268384218216,"308":-0.13386204838752747,"309":-0.28144392371177673,"310":-0.058389678597450256,"311":-0.06221073865890503,"312":0.28611651062965393,"313":-0.003788330126553774,"314":0.3447366952896118,"315":-0.3976706564426422,"316":0.41257256269454956,"317":0.06738293915987015,"318":-0.03651988133788109,"319":0.3642340898513794,"320":-0.27857112884521484,"321":-0.327361524105072,"322":-0.18939658999443054,"323":0.16829586029052734,"324":-0.5186487436294556,"325":-0.2031739354133606,"326":-0.32514384388923645,"327":-0.2819669842720032,"328":-0.2850445508956909,"329":-0.2713432013988495,"330":0.06150985136628151,"331":-0.2269762009382248,"332":-0.024027768522500992,"333":-0.16896678507328033,"334":-0.28672200441360474,"335":-0.2147105187177658,"336":-0.3337235152721405,"337":-0.2611119747161865,"338":0.020141733810305595,"339":-0.07145576924085617,"340":-0.5311567187309265,"341":-0.5361374616622925,"342":-0.6190869212150574,"343":-0.03886079415678978,"344":-0.5407241582870483,"345":-0.24643296003341675,"346":-0.3561846911907196,"347":-0.21942035853862762,"348":-0.49071061611175537,"349":-0.22417795658111572,"350":0.013384116813540459,"351":-0.26764196157455444,"352":0.02909463457763195,"353":-0.34261181950569153,"354":-0.2754160761833191,"355":-0.38029205799102783,"356":-0.5466135144233704,"357":-0.3282390534877777,"358":-0.014278982765972614,"359":0.05376553535461426,"360":0.035833168774843216,"361":0.2781458795070648,"362":0.2557061016559601,"363":-0.6209904551506042,"364":0.2469097077846527,"365":-0.2945045232772827,"366":-0.418279230594635,"367":0.9959794282913208,"368":0.25044938921928406,"369":0.5906772017478943,"370":0.649827241897583,"371":-0.1267549693584442,"372":0.3932354152202606,"373":-0.7116744518280029,"374":-0.201995387673378,"375":-0.022511085495352745,"376":-0.30926650762557983,"377":-0.3815338909626007,"378":0.016620220616459846,"379":-0.5761590003967285,"380":-0.0622171014547348,"381":0.02638332173228264,"382":-0.009081879630684853,"383":-0.07387394458055496,"384":0.019124651327729225,"385":0.009488065727055073,"386":-0.029826480895280838,"387":0.052888352423906326,"388":0.016618454828858376,"389":-0.038439635187387466,"390":-0.05226953700184822,"391":-0.0033423290587961674,"392":0.023590251803398132,"393":-0.024612700566649437,"394":0.036882560700178146,"395":-0.06675046682357788,"396":-0.016451610252261162,"397":0.03997525945305824,"398":-0.08960611373186111,"399":-0.05822495371103287}},"transition":{"rows":20,"columns":20,"weights":{"0":-0.29837751388549805,"1":-0.2814514935016632,"2":0.022591520100831985,"3":0.022547902539372444,"4":-0.22559380531311035,"5":-0.14319157600402832,"6":-0.017926819622516632,"7":0.003930417355149984,"8":-0.31300586462020874,"9":-0.12389317899942398,"10":0.0420137420296669,"11":-0.33651238679885864,"12":0.02504545822739601,"13":-0.16185176372528076,"14":0.028234949335455894,"15":0.06797031313180923,"16":-0.2754438817501068,"17":-0.287026971578598,"18":-0.28661155700683594,"19":-0.0358692929148674,"20":-0.3602634072303772,"21":-0.4486026167869568,"22":-0.047487132251262665,"23":-0.2781059443950653,"24":-0.3828063905239105,"25":-0.026903757825493813,"26":0.039791494607925415,"27":0.03849438205361366,"28":0.7939684987068176,"29":-0.15558847784996033,"30":0.06685256212949753,"31":1.24909508228302,"32":-0.05513687804341316,"33":-0.2293553650379181,"34":0.10050960630178452,"35":-0.28040096163749695,"36":-0.3109513819217682,"37":-0.22416706383228302,"38":-0.02286563068628311,"39":0.01656029000878334,"40":-0.3191350996494293,"41":-0.017869267612695694,"42":0.06337182223796844,"43":-0.014136775396764278,"44":-0.06282128393650055,"45":-0.0687156468629837,"46":-0.015183290466666222,"47":0.05759835243225098,"48":-0.05253729596734047,"49":0.06593083590269089,"50":0.06666722893714905,"51":-0.24609798192977905,"52":0.16097845137119293,"53":0.04770410805940628,"54":0.18732000887393951,"55":-0.009910772554576397,"56":0.015157308429479599,"57":0.04329880326986313,"58":-0.24777324497699738,"59":-0.013040900230407715,"60":0.06937956064939499,"61":0.08872372657060623,"62":0.01887347921729088,"63":0.032218609005212784,"64":-0.11039961129426956,"65":-0.2334907352924347,"66":-0.06811787933111191,"67":0.04904332011938095,"68":0.060379303991794586,"69":0.06909655034542084,"70":0.04246608167886734,"71":0.3571741580963135,"72":0.3762200176715851,"73":0.06426868587732315,"74":0.056507471948862076,"75":0.04170349985361099,"76":0.01087078545242548,"77":-0.31461137533187866,"78":0.13148896396160126,"79":-0.06107263267040253,"80":-0.23474425077438354,"81":-0.3151879608631134,"82":0.017570078372955322,"83":0.9661861658096313,"84":-0.26573020219802856,"85":-0.041781965643167496,"86":-0.0017643952742218971,"87":-0.023394398391246796,"88":0.4083110988140106,"89":-0.09158425033092499,"90":-0.07196403294801712,"91":0.8382136225700378,"92":-0.26054850220680237,"93":-0.2610907554626465,"94":-0.445080041885376,"95":-0.22313398122787476,"96":-0.2997826933860779,"97":-0.3610213100910187,"98":-0.08851495385169983,"99":0.017556974664330482,"100":-0.30998924374580383,"101":-0.41051504015922546,"102":0.06319010257720947,"103":5.785069465637207,"104":-0.21992523968219757,"105":0.10727207362651825,"106":0.01937219873070717,"107":0.04807363077998161,"108":-0.3429214060306549,"109":-0.0017321043414995074,"110":0.021191513165831566,"111":-0.7484634518623352,"112":-1.2057747840881348,"113":-0.05877969413995743,"114":-0.8765727877616882,"115":0.006184963975101709,"116":-0.2567310333251953,"117":-0.21979500353336334,"118":-1.0302538871765137,"119":0.007702677510678768,"120":0.06494057178497314,"121":-0.028201691806316376,"122":0.04245583340525627,"123":0.0027744462713599205,"124":0.06711214780807495,"125":-0.04667823016643524,"126":-0.04958067461848259,"127":0.019908690825104713,"128":-0.05336602032184601,"129":0.056730084121227264,"130":0.008284338749945164,"131":-0.008998210541903973,"132":-0.038217343389987946,"133":-0.048013463616371155,"134":0.010101407766342163,"135":0.00727707426995039,"136":-0.030496880412101746,"137":-0.05645327642560005,"138":0.04859688878059387,"139":0.019038978964090347,"140":0.026996830478310585,"141":0.07088863104581833,"142":-0.03678731247782707,"143":-0.10621359944343567,"144":0.03538794070482254,"145":-0.04998033866286278,"146":-0.011233844794332981,"147":0.023587213829159737,"148":-0.2876802980899811,"149":-0.06768114864826202,"150":0.02475629188120365,"151":-0.26677820086479187,"152":-0.22682709991931915,"153":0.041444212198257446,"154":-0.23467153310775757,"155":-0.049925584346055984,"156":-0.06288911402225494,"157":-0.043124355375766754,"158":-0.3493376672267914,"159":0.05026721954345703,"160":-0.07944133877754211,"161":-0.8229778409004211,"162":0.32736936211586,"163":-0.6179553866386414,"164":-0.9719499349594116,"165":-0.0393683984875679,"166":-0.07197441905736923,"167":0.06472451984882355,"168":0.5500829815864563,"169":-0.22418642044067383,"170":0.21712085604667664,"171":0.29409775137901306,"172":-0.3591063618659973,"173":-0.15119926631450653,"174":-0.043221645057201385,"175":-0.2607193887233734,"176":0.05572081729769707,"177":-0.05235660448670387,"178":-0.22576357424259186,"179":-0.004093538504093885,"180":-0.2748560905456543,"181":-0.2276439219713211,"182":0.028784357011318207,"183":-0.007860403507947922,"184":-0.2631228268146515,"185":-0.008310581557452679,"186":-0.011610183864831924,"187":-0.012460541911423206,"188":-0.09904764592647552,"189":-0.06512114405632019,"190":-0.04998062923550606,"191":-0.06704366952180862,"192":0.029198039323091507,"193":0.026960445567965508,"194":0.0039611211977899075,"195":-0.0584988072514534,"196":-0.24274462461471558,"197":-0.3511166274547577,"198":-0.34922388195991516,"199":0.0026194644160568714,"200":-0.2394658625125885,"201":0.019796282052993774,"202":-0.04286013916134834,"203":0.03933025896549225,"204":-0.06396893411874771,"205":0.05125012621283531,"206":-0.04624214395880699,"207":-0.01666923053562641,"208":-0.3354724943637848,"209":-0.013274749740958214,"210":0.03272605314850807,"211":-0.2542818486690521,"212":0.030339865013957024,"213":0.06487516313791275,"214":0.1418626457452774,"215":0.011664235033094883,"216":0.004055526573210955,"217":0.01400812715291977,"218":-0.228302001953125,"219":-0.04694253206253052,"220":-0.18299627304077148,"221":-0.35648828744888306,"222":0.2932380437850952,"223":-0.9552055597305298,"224":-0.5238249897956848,"225":-0.13132105767726898,"226":0.03879549354314804,"227":-0.01411980576813221,"228":0.0519779771566391,"229":-0.27748870849609375,"230":0.3538810610771179,"231":0.2843172550201416,"232":-0.050825122743844986,"233":-0.1660296469926834,"234":0.006584754679352045,"235":-0.16569773852825165,"236":0.0465334951877594,"237":0.03320066258311272,"238":-0.49056732654571533,"239":-0.03772052749991417,"240":-0.29930832982063293,"241":-0.049244288355112076,"242":0.17409247159957886,"243":0.11418043822050095,"244":-0.3212715983390808,"245":0.06928099691867828,"246":0.0033027222380042076,"247":-0.06267888844013214,"248":0.04341641440987587,"249":-0.27683305740356445,"250":0.2639451026916504,"251":-0.02459278143942356,"252":0.01782471500337124,"253":-0.2956255376338959,"254":-0.12296930700540543,"255":-0.24089764058589935,"256":-0.2615571916103363,"257":-0.356260746717453,"258":-1.2315216064453125,"259":-0.041155073791742325,"260":-0.2975180149078369,"261":-0.2333829700946808,"262":0.012322506867349148,"263":-0.05408918857574463,"264":-0.27551501989364624,"265":0.08121217042207718,"266":0.01645556278526783,"267":-0.053245909512043,"268":-0.19305148720741272,"269":0.023042835295200348,"270":-0.006097765639424324,"271":-0.06480952352285385,"272":0.030348680913448334,"273":-0.003968572709709406,"274":0.0685105100274086,"275":0.04279528185725212,"276":-0.19523487985134125,"277":-0.3431343138217926,"278":-0.33254316449165344,"279":-0.057930298149585724,"280":-0.33425623178482056,"281":-0.46874791383743286,"282":-0.05755046382546425,"283":1.3577429056167603,"284":-0.3133973777294159,"285":0.13639813661575317,"286":-0.05840754508972168,"287":0.042080868035554886,"288":0.38091814517974854,"289":-0.02030044235289097,"290":0.030931860208511353,"291":-0.2866298258304596,"292":0.1244799792766571,"293":-0.0522402785718441,"294":-0.2901795506477356,"295":-0.22473672032356262,"296":0.04251163452863693,"297":-0.06797190010547638,"298":-1.1113061904907227,"299":0.04040025919675827,"300":-0.06722128391265869,"301":-0.013641630299389362,"302":-0.01792476512491703,"303":-0.013532883487641811,"304":-0.015328972600400448,"305":-0.04753464460372925,"306":0.04690078645944595,"307":0.016283871605992317,"308":-0.5219898819923401,"309":-0.010796703398227692,"310":0.05573001876473427,"311":-0.4130055010318756,"312":-0.4363385736942291,"313":0.06835160404443741,"314":0.2678650915622711,"315":0.23514875769615173,"316":-0.019153516739606857,"317":0.05351896956562996,"318":-0.27796176075935364,"319":0.026682166382670403,"320":-0.2582702040672302,"321":-0.326852947473526,"322":-0.00607793964445591,"323":-0.0071380711160600185,"324":-0.23756226897239685,"325":-0.0733131691813469,"326":0.029413390904664993,"327":-0.05211759731173515,"328":-0.5955353379249573,"329":-0.17968709766864777,"330":-0.04166259244084358,"331":-0.12770497798919678,"332":0.009609964676201344,"333":-0.21433189511299133,"334":-0.0326867513358593,"335":0.018245872110128403,"336":-0.3453201353549957,"337":-0.22300557792186737,"338":-0.346413791179657,"339":0.004750311840325594,"340":-0.35561496019363403,"341":-0.24496692419052124,"342":0.023551959544420242,"343":0.027270933613181114,"344":-0.3032897412776947,"345":-0.13625217974185944,"346":0.04228953644633293,"347":0.0034417700953781605,"348":-0.3119507431983948,"349":-0.0733107328414917,"350":-0.06741879880428314,"351":-0.7286000847816467,"352":0.01692170277237892,"353":-0.15900805592536926,"354":-0.06829740107059479,"355":-0.34646129608154297,"356":-0.27911078929901123,"357":-0.29784083366394043,"358":-0.27267447113990784,"359":-0.05667008459568024,"360":-0.847501277923584,"361":-0.4508801996707916,"362":0.20353950560092926,"363":-0.7417669892311096,"364":-0.9741472005844116,"365":0.025655757635831833,"366":0.06817866116762161,"367":-0.06502392888069153,"368":0.31722936034202576,"369":-0.20860415697097778,"370":0.31495365500450134,"371":0.20139549672603607,"372":0.1220177710056305,"373":-0.2451353669166565,"374":0.023663083091378212,"375":-0.3285813629627228,"376":-0.48379313945770264,"377":-0.5413509607315063,"378":0.00928422249853611,"379":-0.03924570605158806,"380":-0.012119589373469353,"381":0.07070550322532654,"382":-0.05891469866037369,"383":-0.21577930450439453,"384":-0.05528048798441887,"385":-0.054152172058820724,"386":0.00857874657958746,"387":-0.025247808545827866,"388":-0.06573548167943954,"389":-0.05901098996400833,"390":-0.00833494495600462,"391":-0.2369433045387268,"392":-0.00670922826975584,"393":-0.02936410717666149,"394":-0.07206868380308151,"395":0.048275843262672424,"396":0.008867357857525349,"397":0.06639102846384048,"398":-0.019771093502640724,"399":0.03311307355761528}},"bias":{"rows":20,"columns":1,"weights":{"0":0.09539484232664108,"1":0.10170982778072357,"2":0,"3":-0.29128098487854004,"4":0.2671540081501007,"5":0,"6":-0.291405588388443,"7":-0.29065102338790894,"8":-1.018341302871704,"9":-0.29208511114120483,"10":0,"11":-0.2366040050983429,"12":-0.2457209825515747,"13":-0.0008057038066908717,"14":0,"15":-0.5819160342216492,"16":0.04986848682165146,"17":0.11389290541410446,"18":-0.37707772850990295,"19":-0.291634738445282}}}],"outputConnector":{"rows":6,"columns":20,"weights":{"0":0.030562452971935272,"1":0.6291117668151855,"2":0.36276522278785706,"3":-0.6324723958969116,"4":0.3361601233482361,"5":2.3791589736938477,"6":-0.038943734019994736,"7":0.24170619249343872,"8":-0.26029130816459656,"9":0.03556256741285324,"10":0.3332436978816986,"11":-0.23504093289375305,"12":0.7801443934440613,"13":-0.011099020950496197,"14":1.2417516708374023,"15":0.25770944356918335,"16":0.12149637937545776,"17":-0.06976646184921265,"18":0.41201063990592957,"19":0.30641940236091614,"20":-0.1646295040845871,"21":-1.095281958580017,"22":0.2367745339870453,"23":0.33610400557518005,"24":-0.3691190481185913,"25":0.440735787153244,"26":-0.026552261784672737,"27":-0.010282349772751331,"28":0.11596336960792542,"29":-0.2928659915924072,"30":0.25545135140419006,"31":-0.023337461054325104,"32":0.04040824621915817,"33":-0.47486716508865356,"34":0.03169078752398491,"35":0.09856237471103668,"36":-0.35037243366241455,"37":-0.15517622232437134,"38":-0.087122842669487,"39":-0.01020194310694933,"40":0.43797746300697327,"41":-0.7324983477592468,"42":-0.258279949426651,"43":1.3198908567428589,"44":-0.6925869584083557,"45":-0.5524911880493164,"46":0.042764149606227875,"47":-0.27431148290634155,"48":0.11576914042234421,"49":0.5112369060516357,"50":-0.24193483591079712,"51":0.014920280314981937,"52":0.05819113925099373,"53":0.5134750604629517,"54":-0.9518694877624512,"55":-0.21816125512123108,"56":0.38439419865608215,"57":0.4609604775905609,"58":-0.03222905844449997,"59":-0.07864812016487122,"60":-0.009740347974002361,"61":-0.49879252910614014,"62":-0.22990873456001282,"63":-0.7526881694793701,"64":-0.7787457704544067,"65":-0.5337557792663574,"66":-0.08745427429676056,"67":-0.2576245665550232,"68":1.7227733135223389,"69":-0.18215954303741455,"70":-0.29524967074394226,"71":2.403805732727051,"72":0.48522210121154785,"73":-0.11155018955469131,"74":-0.2727524936199188,"75":0.09219862520694733,"76":-0.0035867132246494293,"77":-0.09856044501066208,"78":0.8506261110305786,"79":0.010979611426591873,"80":-0.014302104711532593,"81":1.7470667362213135,"82":0.2899119257926941,"83":-0.3443538248538971,"84":1.739288330078125,"85":0.11751069128513336,"86":0.07069341093301773,"87":0.04490996152162552,"88":0.7024879455566406,"89":0.18497946858406067,"90":0.25988155603408813,"91":0.019580302760004997,"92":0.03360544517636299,"93":0.03940483182668686,"94":0.03678160905838013,"95":0.4427753984928131,"96":0.29160499572753906,"97":0.22241564095020294,"98":0.7798929810523987,"99":-0.24320128560066223,"100":-0.3871704936027527,"101":-0.5261184573173523,"102":-0.3467682898044586,"103":-6.903985500335693,"104":-0.6092864871025085,"105":-0.962790846824646,"106":-0.05183975026011467,"107":-0.06946291029453278,"108":-0.7582283616065979,"109":-0.3393743634223938,"110":-0.2759667932987213,"111":-3.9024839401245117,"112":-0.4925614297389984,"113":-0.4936809837818146,"114":-0.3643886148929596,"115":-0.5385528802871704,"116":-0.42292457818984985,"117":-0.3238091766834259,"118":-0.5895354151725769,"119":0.027698300778865814}},"output":{"rows":6,"columns":1,"weights":{"0":-13.56138801574707,"1":1.0470880270004272,"2":1.0670876502990723,"3":-13.57520580291748,"4":-13.561172485351562,"5":-13.558491706848145}}}